{"graph_0": {"_type": "graph-file", "path": "media/graph/graph_0_summary_36fd5466.graph.json", "sha256": "36fd5466a407678666a4dd951027fd41b963ca49f94bc9094f63e3519eae1943", "size": 1067}, "gradients/fc4.bias": {"_type": "histogram", "values": [0.0, 0.0, 0.0, 0.0, 0.0, 0.0, 0.0, 0.0, 0.0, 0.0, 0.0, 0.0, 0.0, 0.0, 0.0, 0.0, 0.0, 0.0, 0.0, 0.0, 0.0, 0.0, 0.0, 0.0, 0.0, 0.0, 0.0, 0.0, 0.0, 0.0, 0.0, 0.0, 1.0, 0.0, 0.0, 0.0, 0.0, 0.0, 0.0, 0.0, 0.0, 0.0, 0.0, 0.0, 0.0, 0.0, 0.0, 0.0, 0.0, 0.0, 0.0, 0.0, 0.0, 0.0, 0.0, 0.0, 0.0, 0.0, 0.0, 0.0, 0.0, 0.0, 0.0, 0.0], "bins": [0.061650291085243225, 0.061650291085243225, 0.061650291085243225, 0.061650291085243225, 0.061650291085243225, 0.061650291085243225, 0.061650291085243225, 0.061650291085243225, 0.061650291085243225, 0.061650291085243225, 0.061650291085243225, 0.061650291085243225, 0.061650291085243225, 0.061650291085243225, 0.061650291085243225, 0.061650291085243225, 0.061650291085243225, 0.061650291085243225, 0.061650291085243225, 0.061650291085243225, 0.061650291085243225, 0.061650291085243225, 0.061650291085243225, 0.061650291085243225, 0.061650291085243225, 0.061650291085243225, 0.061650291085243225, 0.061650291085243225, 0.061650291085243225, 0.061650291085243225, 0.061650291085243225, 0.061650291085243225, 0.061650291085243225, 0.061650291085243225, 0.061650291085243225, 0.061650291085243225, 0.061650291085243225, 0.061650291085243225, 0.061650291085243225, 0.061650291085243225, 0.061650291085243225, 0.061650291085243225, 0.061650291085243225, 0.061650291085243225, 0.061650291085243225, 0.061650291085243225, 0.061650291085243225, 0.061650291085243225, 0.061650291085243225, 0.061650291085243225, 0.061650291085243225, 0.061650291085243225, 0.061650291085243225, 0.061650291085243225, 0.061650291085243225, 0.061650291085243225, 0.061650291085243225, 0.061650291085243225, 0.061650291085243225, 0.061650291085243225, 0.061650291085243225, 0.061650291085243225, 0.061650291085243225, 0.061650291085243225, 0.061650291085243225]}, "gradients/fc4.weight": {"_type": "histogram", "values": [5.0, 1.0, 2.0, 1.0, 2.0, 0.0, 0.0, 0.0, 2.0, 0.0, 0.0, 0.0, 1.0, 0.0, 1.0, 1.0, 0.0, 0.0, 2.0, 0.0, 0.0, 1.0, 0.0, 0.0, 1.0, 2.0, 1.0, 0.0, 0.0, 1.0, 0.0, 0.0, 0.0, 0.0, 0.0, 1.0, 0.0, 0.0, 0.0, 0.0, 0.0, 0.0, 0.0, 0.0, 0.0, 0.0, 0.0, 0.0, 0.0, 0.0, 0.0, 0.0, 1.0, 0.0, 0.0, 0.0, 0.0, 0.0, 0.0, 1.0, 0.0, 0.0, 2.0, 1.0], "bins": [-0.0002181979507440701, 0.0002522636204957962, 0.0007227251771837473, 0.0011931867338716984, 0.0016636482905596495, 0.0021341098472476006, 0.0026045714039355516, 0.0030750329606235027, 0.003545494517311454, 0.004015956073999405, 0.004486417397856712, 0.004956879187375307, 0.005427340976893902, 0.005897802300751209, 0.006368263624608517, 0.0068387254141271114, 0.007309186737984419, 0.007779648527503014, 0.008250109851360321, 0.008720571175217628, 0.009191032499074936, 0.009661494754254818, 0.010131956078112125, 0.010602417401969433, 0.011072879657149315, 0.011543340981006622, 0.01201380230486393, 0.012484264560043812, 0.01295472588390112, 0.013425187207758427, 0.013895649462938309, 0.014366110786795616, 0.014836572110652924, 0.015307033434510231, 0.01577749475836754, 0.016247956082224846, 0.016718417406082153, 0.01718888059258461, 0.017659341916441917, 0.018129803240299225, 0.018600264564156532, 0.01907072588801384, 0.019541187211871147, 0.020011648535728455, 0.02048211172223091, 0.02095257304608822, 0.021423034369945526, 0.021893495693802834, 0.02236395701766014, 0.02283441834151745, 0.023304879665374756, 0.023775340989232063, 0.02424580231308937, 0.024716265499591827, 0.025186726823449135, 0.025657188147306442, 0.02612764947116375, 0.026598110795021057, 0.027068572118878365, 0.027539033442735672, 0.02800949662923813, 0.028479957953095436, 0.028950419276952744, 0.02942088060081005, 0.02989134192466736]}, "gradients/fc3.bias": {"_type": "histogram", "values": [1.0, 0.0, 0.0, 0.0, 1.0, 1.0, 0.0, 0.0, 0.0, 0.0, 0.0, 0.0, 0.0, 0.0, 1.0, 0.0, 0.0, 0.0, 0.0, 1.0, 0.0, 2.0, 0.0, 0.0, 0.0, 3.0, 3.0, 0.0, 0.0, 4.0, 1.0, 3.0, 0.0, 1.0, 0.0, 0.0, 0.0, 0.0, 0.0, 2.0, 1.0, 1.0, 0.0, 0.0, 0.0, 0.0, 1.0, 0.0, 0.0, 0.0, 0.0, 0.0, 1.0, 0.0, 0.0, 0.0, 1.0, 0.0, 0.0, 0.0, 0.0, 0.0, 0.0, 1.0], "bins": [-0.00830086413770914, -0.008019816130399704, -0.00773876765742898, -0.007457719184458256, -0.007176671177148819, -0.006895622704178095, -0.006614574231207371, -0.006333526223897934, -0.00605247775092721, -0.005771429277956486, -0.005490381270647049, -0.005209332797676325, -0.004928284324705601, -0.004647236317396164, -0.00436618784442544, -0.004085139371454716, -0.003804091364145279, -0.0035230431240051985, -0.003241994883865118, -0.002960946410894394, -0.0026798981707543135, -0.002398849930614233, -0.002117801457643509, -0.0018367532175034285, -0.001555704977363348, -0.0012746567372232676, -0.0009936083806678653, -0.0007125600823201239, -0.00043151178397238255, -0.0001504635438323021, 0.00013058481272310019, 0.00041163316927850246, 0.0006926814094185829, 0.0009737297077663243, 0.0012547780061140656, 0.001535826362669468, 0.0018168746028095484, 0.002097922842949629, 0.002378971315920353, 0.0026600195560604334, 0.002941067796200514, 0.0032221160363405943, 0.0035031642764806747, 0.003784212749451399, 0.004065261222422123, 0.00434630922973156, 0.004627357702702284, 0.004908406175673008, 0.005189454182982445, 0.005470502655953169, 0.005751550663262606, 0.00603259913623333, 0.006313647143542767, 0.006594695616513491, 0.006875744089484215, 0.007156792096793652, 0.007437840569764376, 0.0077188890427351, 0.007999937050044537, 0.008280985057353973, 0.008562033995985985, 0.008843082003295422, 0.009124130010604858, 0.00940517894923687, 0.009686226956546307]}, "gradients/fc3.weight": {"_type": "histogram", "values": [1.0, 0.0, 0.0, 0.0, 0.0, 4.0, 1.0, 0.0, 1.0, 0.0, 1.0, 0.0, 0.0, 2.0, 2.0, 2.0, 3.0, 3.0, 2.0, 2.0, 6.0, 7.0, 4.0, 8.0, 8.0, 16.0, 20.0, 35.0, 73.0, 474.0, 83.0, 42.0, 14.0, 17.0, 6.0, 10.0, 7.0, 9.0, 4.0, 6.0, 3.0, 2.0, 3.0, 5.0, 1.0, 2.0, 2.0, 1.0, 0.0, 0.0, 1.0, 2.0, 0.0, 0.0, 1.0, 0.0, 1.0, 0.0, 0.0, 0.0, 0.0, 2.0, 0.0, 1.0], "bins": [-0.011040872894227505, -0.010668070986866951, -0.010295270010828972, -0.009922468103468418, -0.009549666196107864, -0.009176865220069885, -0.008804063312709332, -0.008431261405348778, -0.008058460429310799, -0.007685658987611532, -0.0073128570802509785, -0.006940055638551712, -0.006567253731191158, -0.006194452289491892, -0.005821650847792625, -0.005448848940432072, -0.005076047033071518, -0.0047032455913722515, -0.004330443684011698, -0.003957642242312431, -0.0035848405677825212, -0.003212038893252611, -0.0028392374515533447, -0.0024664357770234346, -0.002093634568154812, -0.0017208328936249018, -0.0013480313355103135, -0.0009752297773957253, -0.0006024281028658152, -0.00022962642833590508, 0.00014317501336336136, 0.0005159766878932714, 0.0008887788280844688, 0.001261580502614379, 0.0016343820607289672, 0.0020071836188435555, 0.0023799852933734655, 0.0027527869679033756, 0.003125588409602642, 0.003498390084132552, 0.0038711922243237495, 0.004243993666023016, 0.00461679557338357, 0.004989597015082836, 0.00536239892244339, 0.005735200364142656, 0.006108001805841923, 0.0064808037132024765, 0.006853604689240456, 0.007226406130939722, 0.007599208038300276, 0.007972009479999542, 0.008344811387360096, 0.00871761329472065, 0.009090414270758629, 0.009463216178119183, 0.009836018085479736, 0.01020881999284029, 0.01058162096887827, 0.010954422876238823, 0.011327224783599377, 0.01170002669095993, 0.01207282766699791, 0.012445629574358463, 0.012818430550396442]}, "gradients/fc2.bias": {"_type": "histogram", "values": [1.0, 0.0, 0.0, 0.0, 0.0, 0.0, 0.0, 0.0, 0.0, 0.0, 0.0, 0.0, 0.0, 0.0, 0.0, 0.0, 1.0, 1.0, 1.0, 1.0, 1.0, 1.0, 2.0, 0.0, 2.0, 4.0, 1.0, 3.0, 2.0, 2.0, 0.0, 0.0, 0.0, 1.0, 0.0, 1.0, 0.0, 0.0, 1.0, 0.0, 0.0, 1.0, 1.0, 0.0, 0.0, 0.0, 0.0, 1.0, 0.0, 0.0, 0.0, 0.0, 0.0, 0.0, 0.0, 0.0, 0.0, 0.0, 0.0, 0.0, 0.0, 0.0, 0.0, 1.0], "bins": [-0.0030346643179655075, -0.002915975172072649, -0.002797286259010434, -0.0026785971131175756, -0.002559908200055361, -0.0024412190541625023, -0.0023225301411002874, -0.002203840995207429, -0.002085152082145214, -0.0019664629362523556, -0.0018477740231901407, -0.001729084993712604, -0.0016103959642350674, -0.0014917068183422089, -0.001373017905279994, -0.0012543287593871355, -0.0011356397299095988, -0.0010169507004320621, -0.0008982616709545255, -0.0007795726414769888, -0.0006608836119994521, -0.0005421945243142545, -0.00042350549483671784, -0.00030481646535918117, -0.00018612737767398357, -6.743834092048928e-05, 5.125069583300501e-05, 0.00016993973986245692, 0.0002886287693399936, 0.00040731782792136073, 0.0005260068573988974, 0.0006446958868764341, 0.0007633848581463099, 0.0008820738876238465, 0.0010007629171013832, 0.0011194519465789199, 0.0012381409760564566, 0.001356830121949315, 0.00147551903501153, 0.0015942081809043884, 0.0017128970939666033, 0.00183158612344414, 0.0019502751529216766, 0.002068964298814535, 0.00218765321187675, 0.0023063423577696085, 0.0024250312708318233, 0.002543720416724682, 0.0026624095626175404, 0.002781098708510399, 0.0028997876215726137, 0.0030184767674654722, 0.003137165680527687, 0.0032558548264205456, 0.0033745437394827604, 0.003493232885375619, 0.003611921798437834, 0.0037306109443306923, 0.003849299857392907, 0.003967988770455122, 0.0040866779163479805, 0.004205367062240839, 0.0043240562081336975, 0.004442744888365269, 0.004561434034258127]}, "gradients/fc2.weight": {"_type": "histogram", "values": [1.0, 0.0, 0.0, 1.0, 0.0, 0.0, 1.0, 1.0, 0.0, 1.0, 1.0, 2.0, 3.0, 2.0, 1.0, 2.0, 3.0, 13.0, 16.0, 25.0, 36.0, 73.0, 486.0, 75.0, 48.0, 25.0, 20.0, 6.0, 10.0, 7.0, 6.0, 7.0, 4.0, 3.0, 3.0, 2.0, 2.0, 2.0, 2.0, 0.0, 1.0, 0.0, 2.0, 1.0, 2.0, 1.0, 0.0, 0.0, 1.0, 0.0, 0.0, 0.0, 0.0, 0.0, 1.0, 0.0, 0.0, 0.0, 0.0, 0.0, 0.0, 0.0, 0.0, 1.0], "bins": [-0.007467396557331085, -0.007133568171411753, -0.006799739319831133, -0.0064659109339118, -0.006132082082331181, -0.005798253696411848, -0.0054644253104925156, -0.005130596458911896, -0.004796767607331276, -0.0044629392214119434, -0.004129110369831324, -0.003795281983911991, -0.0034614531323313713, -0.003127624746412039, -0.0027937961276620626, -0.0024599675089120865, -0.002126139122992754, -0.0017923105042427778, -0.0014584818854928017, -0.0011246533831581473, -0.0007908247644081712, -0.000456996145658195, -0.0001231676433235407, 0.00021066097542643547, 0.000544489361345768, 0.0008783179800957441, 0.0012121465988457203, 0.0015459751011803746, 0.0018798037199303508, 0.002213632222265005, 0.0025474608410149813, 0.0028812894597649574, 0.0032151183113455772, 0.0035489469300955534, 0.0038827755488455296, 0.004216603934764862, 0.004550432786345482, 0.004884261172264814, 0.005218089558184147, 0.005551918409764767, 0.0058857472613453865, 0.006219575647264719, 0.006553404498845339, 0.006887232884764671, 0.007221061736345291, 0.007554890122264624, 0.007888718508183956, 0.008222547359764576, 0.008556375280022621, 0.008890204131603241, 0.009224032051861286, 0.009557860903441906, 0.009891689755022526, 0.010225518606603146, 0.01055934652686119, 0.01089317537844181, 0.01122700423002243, 0.01156083308160305, 0.011894661001861095, 0.012228489853441715, 0.012562318705022335, 0.012896147556602955, 0.013229975476861, 0.01356380432844162, 0.01389763318002224]}, "gradients/fc1.bias": {"_type": "histogram", "values": [1.0, 0.0, 0.0, 0.0, 0.0, 0.0, 0.0, 0.0, 0.0, 0.0, 0.0, 0.0, 0.0, 0.0, 0.0, 0.0, 0.0, 1.0, 0.0, 1.0, 0.0, 0.0, 1.0, 1.0, 0.0, 0.0, 0.0, 0.0, 0.0, 1.0, 1.0, 1.0, 0.0, 1.0, 0.0, 7.0, 2.0, 2.0, 1.0, 1.0, 2.0, 0.0, 0.0, 0.0, 0.0, 0.0, 1.0, 0.0, 1.0, 0.0, 1.0, 0.0, 0.0, 1.0, 0.0, 0.0, 0.0, 0.0, 0.0, 1.0, 0.0, 0.0, 0.0, 1.0], "bins": [-0.001427010865882039, -0.0013863493222743273, -0.0013456877786666155, -0.0013050262350589037, -0.001264364691451192, -0.0012237031478434801, -0.0011830416042357683, -0.0011423800606280565, -0.0011017185170203447, -0.001061056973412633, -0.0010203954298049212, -0.0009797338861972094, -0.0009390723425894976, -0.0008984107989817858, -0.0008577493135817349, -0.0008170877699740231, -0.0007764262845739722, -0.0007357647409662604, -0.0006951031973585486, -0.0006544416537508368, -0.0006137801101431251, -0.0005731185665354133, -0.0005324570811353624, -0.0004917955375276506, -0.0004511339939199388, -0.000410472450312227, -0.0003698109067045152, -0.0003291493922006339, -0.0002884878485929221, -0.0002478263049852103, -0.00020716477592941374, -0.00016650324687361717, -0.00012584170326590538, -8.51801669341512e-05, -4.4518630602397025e-05, -3.857094270642847e-06, 3.680444206111133e-05, 7.746598566882312e-05, 0.00011812751472461969, 0.00015878904378041625, 0.00019945058738812804, 0.00024011213099583983, 0.0002807736746035516, 0.00032143518910743296, 0.00036209673271514475, 0.00040275827632285655, 0.0004434197908267379, 0.00048408133443444967, 0.0005247428780421615, 0.0005654044216498733, 0.000606065965257585, 0.0006467275088652968, 0.0006873890524730086, 0.0007280505960807204, 0.0007687120814807713, 0.0008093736250884831, 0.0008500351686961949, 0.0008906967123039067, 0.0009313582559116185, 0.0009720197995193303, 0.0010126812849193811, 0.001053342828527093, 0.0010940043721348047, 0.0011346659157425165, 0.0011753274593502283]}, "gradients/fc1.weight": {"_type": "histogram", "values": [1.0, 0.0, 0.0, 0.0, 0.0, 0.0, 0.0, 0.0, 1.0, 0.0, 0.0, 0.0, 0.0, 0.0, 1.0, 0.0, 0.0, 1.0, 0.0, 1.0, 0.0, 1.0, 1.0, 4.0, 0.0, 1.0, 3.0, 1.0, 1.0, 6.0, 5.0, 4.0, 14.0, 24.0, 144.0, 461.0, 36.0, 23.0, 12.0, 11.0, 2.0, 3.0, 1.0, 1.0, 3.0, 1.0, 2.0, 0.0, 3.0, 0.0, 1.0, 1.0, 0.0, 2.0, 0.0, 0.0, 1.0, 0.0, 0.0, 1.0, 0.0, 0.0, 0.0, 1.0], "bins": [-0.009526478126645088, -0.00925503484904766, -0.008983590640127659, -0.008712147362530231, -0.00844070315361023, -0.008169259876012802, -0.007897816598415375, -0.00762637285515666, -0.007354929111897945, -0.007083485368639231, -0.006812041625380516, -0.006540598347783089, -0.006269154604524374, -0.005997710861265659, -0.005726267583668232, -0.005454823840409517, -0.005183380097150803, -0.004911936353892088, -0.004640492610633373, -0.004369049333035946, -0.004097605589777231, -0.0038261618465185165, -0.0035547183360904455, -0.0032832748256623745, -0.00301183108240366, -0.002740387339144945, -0.002468943828716874, -0.002197500318288803, -0.0019260565750300884, -0.0016546129481866956, -0.0013831693213433027, -0.0011117256944999099, -0.000840282067656517, -0.0005688384408131242, -0.00029739481396973133, -2.5951187126338482e-05, 0.00024549243971705437, 0.0005169360665604472, 0.0007883796934038401, 0.001059823320247233, 0.0013312669470906258, 0.0016027105739340186, 0.0018741542007774115, 0.0021455977112054825, 0.002417041454464197, 0.002688485197722912, 0.002959928708150983, 0.003231372218579054, 0.0035028159618377686, 0.0037742597050964832, 0.004045703448355198, 0.004317146725952625, 0.00458859046921134, 0.004860034212470055, 0.005131477490067482, 0.005402921233326197, 0.005674364976584911, 0.005945808719843626, 0.006217252463102341, 0.006488695740699768, 0.006760139483958483, 0.007031583227217197, 0.007303026504814625, 0.0075744702480733395, 0.007845913991332054]}, "_step": 0, "_runtime": 146, "_timestamp": 1623090466}